SNNS network definition file V1.4-3D
generated at Sun Apr 15 11:31:30 2018

network name : encode
source files :
no. of units : 16
no. of connections : 60
no. of unit types : 0
no. of site types : 0


learning function : Std_Backpropagation
update function   : Topological_Order


unit default section :

act      | bias     | st | subnet | layer | act func     | out func
---------|----------|----|--------|-------|--------------|-------------
 0.00000 |  0.00000 | h  |      0 |     1 | Act_Logistic | Out_Identity 
---------|----------|----|--------|-------|--------------|-------------


unit definition section :

no. | typeName | unitName | act      | bias     | st | position | act func | out func | sites
----|----------|----------|----------|----------|----|----------|----------|----------|-------
  1 |          |          |  0.26000 |  0.99998 | i  | 2,2,-14224    |||
  2 |          |          |  0.41000 |  0.99998 | i  | 2,3,-14224    |||
  3 |          |          |  0.65000 |  0.99998 | i  | 2,4,-14224    |||
  4 |          |          |  0.62000 |  0.99999 | i  | 2,5,-14224    |||
  5 |          |          |  0.86000 |  0.99998 | i  | 2,6,-14224    |||
  6 |          |          |  0.07438 | -4.52310 | h  | 5,2,-14224    |||
  7 |          |          |  0.03299 |  1.04357 | h  | 5,3,-14224    |||
  8 |          |          |  0.61450 | -0.29328 | h  | 5,4,-14224    |||
  9 |          |          |  0.05583 | -3.68555 | h  | 5,5,-14224    |||
 10 |          |          |  0.08144 | -9.53349 | h  | 5,6,-14224    |||
 11 |          |          |  0.17490 | -6.76493 | h  | 5,7,-14224    |||
 12 |          |          |  0.44364 | -6.60964 | o  | 8,2,-14224    |||
 13 |          |          |  0.50293 | -6.28778 | o  | 8,3,-14224    |||
 14 |          |          |  0.56135 | -6.21399 | o  | 8,4,-14224    |||
 15 |          |          |  0.57637 | -5.38411 | o  | 8,5,-14224    |||
 16 |          |          |  0.58727 | -7.02487 | o  | 8,6,-14224    |||
----|----------|----------|----------|----------|----|----------|----------|----------|-------


connection definition section :

target | site | source:weight
-------|------|---------------------------------------------------------------------------------------------------------------------
     6 |      |  5:-0.08179,  4:-0.01301,  3:-0.00001,  2: 5.06591,  1: 0.01208
     7 |      |  5:-4.64283,  4:-0.00741,  3:-0.40521,  2:-0.27710,  1:-0.18177
     8 |      |  5: 0.37027,  4: 0.27611,  3: 0.24249,  2: 0.18980,  1: 0.13100
     9 |      |  5:-0.09333,  4:-0.01159,  3:-0.10294,  2:-0.05215,  1: 3.97415
    10 |      |  5: 0.51636,  4: 9.87536,  3: 0.58917,  2: 0.31965,  1: 0.11450
    11 |      |  5: 0.01165,  4: 0.14433,  3: 7.77004,  2: 0.11774,  1: 0.05891
    12 |      | 11:-0.03491, 10: 0.02508,  9: 2.75327,  8:10.14581,  7: 0.00010,  6:-0.01385
    13 |      | 11: 0.01242, 10: 0.01507,  9: 0.04144,  8:10.05373,  7: 0.04580,  6: 1.53617
    14 |      | 11: 0.68106, 10: 0.06483,  9: 0.01787,  8:10.29753,  7: 0.12935,  6: 0.04239
    15 |      | 11: 0.11849, 10: 0.38092,  9: 0.06382,  8: 9.16757,  7:-0.11057,  6: 0.09284
    16 |      | 11: 0.00067, 10: 0.03195,  9:-0.05186,  8:11.96954,  7: 0.77062,  6:-0.04008
-------|------|---------------------------------------------------------------------------------------------------------------------
